{"train/iter": 99, "train/dt": 0.1147310771048069, "train/dtf": 0.05266132391989231, "train/dtb": 0.06206975318491459, "train/loss": 341.3265075683594, "train/sps": 557.8261933472129, "_timestamp": 1732664901.3356621, "_runtime": 14.631713151931763, "_step": 99, "parameters/layers.0.weight": {"_type": "histogram", "values": [3.0, 1.0, 11.0, 23.0, 51.0, 131.0, 233.0, 593.0, 1103.0, 1815.0, 2399.0, 2709.0, 2848.0, 2897.0, 2795.0, 2975.0, 2876.0, 2768.0, 2822.0, 2886.0, 2881.0, 2891.0, 2878.0, 2861.0, 2759.0, 2897.0, 2849.0, 2853.0, 2818.0, 2832.0, 2800.0, 2791.0, 2760.0, 2778.0, 2839.0, 2865.0, 2867.0, 2864.0, 2970.0, 2856.0, 2879.0, 2858.0, 2888.0, 2808.0, 2919.0, 2907.0, 2864.0, 2902.0, 2867.0, 2823.0, 2764.0, 2867.0, 2582.0, 2179.0, 1505.0, 846.0, 422.0, 175.0, 85.0, 51.0, 21.0, 8.0, 2.0, 2.0], "bins": [-0.12605229020118713, -0.1220828965306282, -0.11811350286006927, -0.11414410173892975, -0.11017470806837082, -0.10620531439781189, -0.10223591327667236, -0.09826651960611343, -0.0942971259355545, -0.09032773226499557, -0.08635833859443665, -0.08238893747329712, -0.07841954380273819, -0.07445015013217926, -0.07048074901103973, -0.0665113553404808, -0.06254196166992188, -0.058572567999362946, -0.05460317060351372, -0.05063377320766449, -0.04666437953710556, -0.04269498586654663, -0.0387255884706974, -0.034756191074848175, -0.030786797404289246, -0.026817401871085167, -0.022848006337881088, -0.01887861080467701, -0.014909215271472931, -0.010939819738268852, -0.0069704242050647736, -0.003001028671860695, 0.0009683817625045776, 0.004937777295708656, 0.008907172828912735, 0.012876568362116814, 0.016845963895320892, 0.02081535942852497, 0.02478475496172905, 0.02875415049493313, 0.03272354602813721, 0.036692939698696136, 0.040662337094545364, 0.04463173449039459, 0.04860112816095352, 0.05257052183151245, 0.05653991922736168, 0.06050931662321091, 0.06447871029376984, 0.06844810396432877, 0.0724174976348877, 0.07638689875602722, 0.08035629242658615, 0.08432568609714508, 0.0882950872182846, 0.09226448088884354, 0.09623387455940247, 0.1002032682299614, 0.10417266190052032, 0.10814206302165985, 0.11211145669221878, 0.11608085036277771, 0.12005025148391724, 0.12401964515447617, 0.1279890388250351]}, "parameters/layers.0.bias": {"_type": "histogram", "values": [2.0, 3.0, 10.0, 13.0, 13.0, 20.0, 14.0, 14.0, 21.0, 19.0, 17.0, 16.0, 19.0, 18.0, 19.0, 29.0, 14.0, 15.0, 18.0, 27.0, 18.0, 19.0, 20.0, 14.0, 19.0, 15.0, 16.0, 12.0, 18.0, 12.0, 20.0, 17.0, 17.0, 20.0, 14.0, 20.0, 10.0, 16.0, 20.0, 17.0, 17.0, 23.0, 17.0, 12.0, 16.0, 15.0, 24.0, 16.0, 11.0, 23.0, 26.0, 20.0, 20.0, 16.0, 16.0, 24.0, 14.0, 13.0, 11.0, 13.0, 13.0, 3.0, 2.0, 4.0], "bins": [-0.09474538266658783, -0.09177880734205246, -0.08881222456693649, -0.08584564924240112, -0.08287906646728516, -0.07991249114274979, -0.07694591581821442, -0.07397933304309845, -0.07101275771856308, -0.06804618239402771, -0.06507959961891174, -0.06211302429437637, -0.059146445244550705, -0.05617986619472504, -0.05321329087018967, -0.050246711820364, -0.04728013277053833, -0.04431355372071266, -0.04134697467088699, -0.038380399346351624, -0.035413820296525955, -0.03244724124670029, -0.029480664059519768, -0.02651408687233925, -0.02354750782251358, -0.020580928772687912, -0.017614351585507393, -0.0146477734670043, -0.011681195348501205, -0.008714617229998112, -0.005748039111495018, -0.0027814609929919243, 0.00018512457609176636, 0.00315170269459486, 0.006118280813097954, 0.009084858931601048, 0.012051437050104141, 0.015018015168607235, 0.01798459328711033, 0.020951170474290848, 0.023917749524116516, 0.026884328573942184, 0.029850905761122704, 0.03281748294830322, 0.03578406199812889, 0.03875064104795456, 0.04171721637248993, 0.0446837954223156, 0.047650374472141266, 0.050616953521966934, 0.0535835325717926, 0.05655010789632797, 0.05951668694615364, 0.06248326599597931, 0.06544984132051468, 0.06841642409563065, 0.07138299942016602, 0.07434957474470139, 0.07731615751981735, 0.08028273284435272, 0.08324931561946869, 0.08621589094400406, 0.08918246626853943, 0.0921490490436554, 0.09511562436819077]}, "parameters/layers.1.weight": {"_type": "histogram", "values": [2.0, 3.0, 11.0, 10.0, 27.0, 32.0, 55.0, 58.0, 108.0, 130.0, 191.0, 261.0, 360.0, 492.0, 687.0, 914.0, 1416.0, 1960.0, 2736.0, 4110.0, 5996.0, 9064.0, 13060.0, 17108.0, 21023.0, 23579.0, 25149.0, 26348.0, 27026.0, 27513.0, 27879.0, 27867.0, 27976.0, 27881.0, 27223.0, 27140.0, 25990.0, 24991.0, 22981.0, 20304.0, 16087.0, 12134.0, 8316.0, 5602.0, 3738.0, 2566.0, 1845.0, 1197.0, 940.0, 655.0, 469.0, 293.0, 226.0, 163.0, 113.0, 96.0, 62.0, 53.0, 32.0, 19.0, 11.0, 6.0, 3.0, 1.0], "bins": [-0.11205894500017166, -0.10854650288820267, -0.10503406077623367, -0.10152161866426468, -0.09800917655229568, -0.09449673444032669, -0.0909842923283577, -0.0874718502163887, -0.0839594155550003, -0.08044697344303131, -0.07693453133106232, -0.07342208921909332, -0.06990964710712433, -0.06639720499515533, -0.06288476288318634, -0.059372320771217346, -0.05585987865924835, -0.05234743654727936, -0.048834994435310364, -0.04532255232334137, -0.041810110211372375, -0.03829767182469368, -0.034785229712724686, -0.03127278760075569, -0.027760345488786697, -0.024247903376817703, -0.02073546126484871, -0.017223021015524864, -0.01371057890355587, -0.010198136791586876, -0.006685695610940456, -0.0031732539646327496, 0.0003391951322555542, 0.003851636778563261, 0.007364078424870968, 0.010876519605517387, 0.014388961717486382, 0.017901403829455376, 0.02141384407877922, 0.024926286190748215, 0.02843872830271721, 0.0319511704146862, 0.0354636125266552, 0.03897605463862419, 0.04248849302530289, 0.04600093513727188, 0.049513377249240875, 0.05302581936120987, 0.056538261473178864, 0.06005070358514786, 0.06356314569711685, 0.06707558780908585, 0.07058802992105484, 0.07410047203302383, 0.07761291414499283, 0.08112535625696182, 0.08463779091835022, 0.08815023303031921, 0.09166267514228821, 0.0951751172542572, 0.0986875593662262, 0.10220000147819519, 0.10571244359016418, 0.10922488570213318, 0.11273732781410217]}, "parameters/layers.1.bias": {"_type": "histogram", "values": [2.0, 1.0, 2.0, 5.0, 1.0, 8.0, 5.0, 9.0, 7.0, 12.0, 10.0, 4.0, 14.0, 13.0, 8.0, 10.0, 15.0, 8.0, 6.0, 6.0, 11.0, 9.0, 4.0, 15.0, 4.0, 6.0, 10.0, 7.0, 5.0, 8.0, 8.0, 9.0, 5.0, 7.0, 10.0, 6.0, 13.0, 6.0, 8.0, 15.0, 9.0, 8.0, 12.0, 7.0, 12.0, 8.0, 11.0, 15.0, 9.0, 10.0, 9.0, 10.0, 10.0, 7.0, 4.0, 11.0, 18.0, 10.0, 3.0, 3.0, 6.0, 2.0, 2.0, 4.0], "bins": [-0.03533804044127464, -0.034233566373586655, -0.033129096031188965, -0.03202462196350098, -0.030920151621103287, -0.029815679416060448, -0.02871120721101761, -0.02760673500597477, -0.02650226280093193, -0.025397788733243942, -0.024293316528201103, -0.023188844323158264, -0.022084372118115425, -0.020979899913072586, -0.019875427708029747, -0.018770955502986908, -0.01766648329794407, -0.01656201109290123, -0.01545753888785839, -0.014353066682815552, -0.013248594477772713, -0.012144121341407299, -0.01103964913636446, -0.009935176931321621, -0.008830704726278782, -0.007726232521235943, -0.006621760316193104, -0.005517287645488977, -0.004412815440446138, -0.0033083432354032993, -0.0022038707975298166, -0.0010993984760716558, 5.073845386505127e-06, 0.001109546166844666, 0.002214018488302827, 0.0033184909261763096, 0.004422963131219149, 0.005527435336261988, 0.006631908006966114, 0.007736380212008953, 0.008840852417051792, 0.009945324622094631, 0.01104979682713747, 0.01215426903218031, 0.013258742168545723, 0.014363214373588562, 0.015467686578631401, 0.01657215878367424, 0.01767663098871708, 0.018781103193759918, 0.019885575398802757, 0.020990047603845596, 0.022094519808888435, 0.023198992013931274, 0.024303464218974113, 0.025407936424016953, 0.02651241049170494, 0.02761688269674778, 0.02872135490179062, 0.029825827106833458, 0.030930299311876297, 0.03203476965427399, 0.033139243721961975, 0.034243714064359665, 0.03534818813204765]}, "parameters/layers.2.weight": {"_type": "histogram", "values": [3.0, 6.0, 3.0, 13.0, 5.0, 14.0, 21.0, 32.0, 41.0, 63.0, 106.0, 159.0, 210.0, 354.0, 645.0, 1017.0, 1659.0, 2592.0, 3320.0, 3935.0, 4067.0, 4297.0, 4330.0, 4298.0, 4369.0, 4411.0, 4421.0, 4377.0, 4393.0, 4285.0, 4376.0, 4341.0, 4387.0, 4300.0, 4351.0, 4358.0, 4329.0, 4393.0, 4414.0, 4292.0, 4301.0, 4408.0, 4287.0, 4004.0, 3741.0, 3179.0, 2313.0, 1497.0, 877.0, 527.0, 320.0, 219.0, 126.0, 96.0, 54.0, 49.0, 24.0, 20.0, 17.0, 8.0, 8.0, 7.0, 0.0, 3.0], "bins": [-0.10113808512687683, -0.09796446561813354, -0.09479085355997086, -0.09161723405122757, -0.08844362199306488, -0.0852700024843216, -0.0820963904261589, -0.07892277091741562, -0.07574915885925293, -0.07257553935050964, -0.06940191984176636, -0.06622830778360367, -0.06305468827486038, -0.059881072491407394, -0.05670745670795441, -0.05353384092450142, -0.05036022514104843, -0.047186609357595444, -0.044012993574142456, -0.04083937779068947, -0.03766576200723648, -0.034492142498493195, -0.03131852671504021, -0.02814491093158722, -0.02497129514813423, -0.021797679364681244, -0.018624063581228256, -0.01545044593513012, -0.012276830151677132, -0.009103214368224144, -0.005929597653448582, -0.0027559814043343067, 0.00041763484477996826, 0.0035912510938942432, 0.006764867343008518, 0.00993848405778408, 0.013112099841237068, 0.016285715624690056, 0.019459333270788193, 0.02263294905424118, 0.025806564837694168, 0.028980180621147156, 0.03215379640460014, 0.03532741218805313, 0.03850103169679642, 0.041674647480249405, 0.04484826326370239, 0.04802187904715538, 0.05119549483060837, 0.054369110614061356, 0.05754272639751434, 0.06071634218096733, 0.06388995796442032, 0.0670635774731636, 0.0702371895313263, 0.07341080904006958, 0.07658442854881287, 0.07975804060697556, 0.08293166011571884, 0.08610527217388153, 0.08927889168262482, 0.0924525037407875, 0.09562612324953079, 0.09879973530769348, 0.10197335481643677]}, "parameters/layers.2.bias": {"_type": "histogram", "values": [2.0, 2.0, 2.0, 4.0, 1.0, 3.0, 5.0, 2.0, 6.0, 4.0, 5.0, 5.0, 4.0, 4.0, 1.0, 4.0, 6.0, 2.0, 4.0, 5.0, 10.0, 4.0, 6.0, 3.0, 5.0, 8.0, 3.0, 4.0, 6.0, 6.0, 6.0, 2.0, 7.0, 6.0, 2.0, 1.0, 4.0, 2.0, 3.0, 6.0, 4.0, 4.0, 3.0, 5.0, 5.0, 3.0, 5.0, 3.0, 4.0, 3.0, 6.0, 7.0, 6.0, 1.0, 6.0, 4.0, 6.0, 0.0, 3.0, 4.0, 1.0, 4.0, 3.0, 1.0], "bins": [-0.050342708826065063, -0.0487736277282238, -0.047204550355672836, -0.045635469257831573, -0.04406638815999031, -0.042497310787439346, -0.040928229689598083, -0.03935914859175682, -0.037790071219205856, -0.036220990121364594, -0.03465190902352333, -0.033082831650972366, -0.031513750553131104, -0.02994467131793499, -0.028375592082738876, -0.026806510984897614, -0.0252374317497015, -0.023668352514505386, -0.022099271416664124, -0.02053019218146801, -0.018961112946271896, -0.017392031848430634, -0.01582295261323452, -0.014253873378038406, -0.012684793211519718, -0.01111571304500103, -0.009546633809804916, -0.007977553643286228, -0.006408473942428827, -0.004839394241571426, -0.003270314307883382, -0.0017012344906106591, -0.0001321546733379364, 0.0014369251439347863, 0.003006004961207509, 0.004575084894895554, 0.0061441645957529545, 0.007713244296610355, 0.009282324463129044, 0.010851403698325157, 0.012420483864843845, 0.013989564031362534, 0.015558643266558647, 0.01712772250175476, 0.018696803599596024, 0.020265882834792137, 0.02183496206998825, 0.023404043167829514, 0.024973122403025627, 0.02654220163822174, 0.028111282736063004, 0.029680361971259117, 0.03124944120645523, 0.032818522304296494, 0.03438759967684746, 0.03595668077468872, 0.037525761872529984, 0.03909483924508095, 0.04066392034292221, 0.042233001440763474, 0.04380207881331444, 0.0453711599111557, 0.046940241008996964, 0.04850931838154793, 0.05007839947938919]}, "parameters/layers.3.weight": {"_type": "histogram", "values": [2.0, 1.0, 5.0, 3.0, 7.0, 8.0, 24.0, 50.0, 100.0, 151.0, 294.0, 464.0, 625.0, 722.0, 772.0, 808.0, 793.0, 778.0, 834.0, 837.0, 812.0, 791.0, 819.0, 772.0, 774.0, 749.0, 819.0, 836.0, 774.0, 747.0, 801.0, 803.0, 780.0, 767.0, 815.0, 856.0, 801.0, 759.0, 816.0, 836.0, 823.0, 840.0, 822.0, 811.0, 770.0, 812.0, 803.0, 801.0, 758.0, 737.0, 633.0, 402.0, 229.0, 159.0, 66.0, 42.0, 25.0, 12.0, 5.0, 7.0, 3.0, 1.0, 1.0, 1.0], "bins": [-0.10230584442615509, -0.09904775768518448, -0.09578966349363327, -0.09253157675266266, -0.08927349001169205, -0.08601539582014084, -0.08275730907917023, -0.07949922233819962, -0.076241135597229, -0.0729830414056778, -0.06972495466470718, -0.06646686792373657, -0.06320877373218536, -0.05995068699121475, -0.05669259652495384, -0.05343450978398323, -0.05017641931772232, -0.04691832885146141, -0.0436602421104908, -0.04040215164422989, -0.03714406490325928, -0.03388597443699837, -0.030627883970737457, -0.027369795367121696, -0.024111706763505936, -0.020853618159890175, -0.017595529556274414, -0.014337439090013504, -0.011079350486397743, -0.007821261882781982, -0.004563172347843647, -0.001305083278566599, 0.0019530132412910461, 0.005211102310568094, 0.008469191379845142, 0.011727280914783478, 0.014985369518399239, 0.018243458122015, 0.02150154858827591, 0.02475963719189167, 0.02801772579550743, 0.03127581626176834, 0.03453390300273895, 0.03779199346899986, 0.04105008393526077, 0.044308170676231384, 0.047566261142492294, 0.050824347883462906, 0.054082438349723816, 0.057340528815984726, 0.06059861555695534, 0.06385670602321625, 0.06711479276418686, 0.07037288695573807, 0.07363097369670868, 0.07688906043767929, 0.0801471471786499, 0.08340524137020111, 0.08666332811117172, 0.08992141485214233, 0.09317950904369354, 0.09643759578466415, 0.09969568252563477, 0.10295377671718597, 0.10621186345815659]}, "parameters/layers.3.bias": {"_type": "histogram", "values": [3.0, 0.0, 1.0, 2.0, 0.0, 4.0, 2.0, 1.0, 1.0, 1.0, 1.0, 4.0, 2.0, 2.0, 4.0, 1.0, 7.0, 0.0, 1.0, 1.0, 1.0, 2.0, 4.0, 0.0, 4.0, 1.0, 4.0, 2.0, 5.0, 4.0, 2.0, 2.0, 2.0, 2.0, 2.0, 0.0, 1.0, 1.0, 4.0, 2.0, 3.0, 3.0, 1.0, 4.0, 1.0, 5.0, 1.0, 4.0, 3.0, 2.0, 1.0, 1.0, 1.0, 2.0, 1.0, 3.0, 2.0, 4.0, 0.0, 1.0, 1.0, 0.0, 0.0, 1.0], "bins": [-0.07052723318338394, -0.06832852214574814, -0.06612981855869293, -0.06393110752105713, -0.061732400208711624, -0.05953369289636612, -0.057334981858730316, -0.05513627454638481, -0.05293756723403931, -0.0507388599216938, -0.0485401526093483, -0.046341441571712494, -0.04414273425936699, -0.041944026947021484, -0.03974531590938568, -0.037546608597040176, -0.03534790128469467, -0.03314919397234917, -0.030950484797358513, -0.02875177562236786, -0.026553068310022354, -0.02435436099767685, -0.022155651822686195, -0.01995694264769554, -0.017758235335350037, -0.015559527091681957, -0.013360818848013878, -0.011162110604345798, -0.008963402360677719, -0.00676469411700964, -0.00456598587334156, -0.002367277629673481, -0.00016857683658599854, 0.002030131407082081, 0.00422883965075016, 0.00642754789441824, 0.008626256138086319, 0.010824964381754398, 0.013023672625422478, 0.015222380869090557, 0.017421089112758636, 0.01961979642510414, 0.021818505600094795, 0.02401721477508545, 0.026215922087430954, 0.02841462939977646, 0.030613338574767113, 0.03281204774975777, 0.03501075506210327, 0.037209462374448776, 0.03940816968679428, 0.041606880724430084, 0.04380558803677559, 0.046004295349121094, 0.0482030063867569, 0.0504017136991024, 0.052600421011447906, 0.05479912832379341, 0.056997835636138916, 0.05919654667377472, 0.061395253986120224, 0.06359396129846573, 0.06579267233610153, 0.06799137592315674, 0.07019008696079254]}, "parameters/layers.4.weight": {"_type": "histogram", "values": [2.0, 2.0, 6.0, 19.0, 27.0, 60.0, 113.0, 163.0, 200.0, 261.0, 282.0, 302.0, 311.0, 356.0, 350.0, 353.0, 329.0, 339.0, 341.0, 343.0, 341.0, 347.0, 332.0, 344.0, 321.0, 337.0, 351.0, 323.0, 329.0, 357.0, 354.0, 332.0, 313.0, 329.0, 317.0, 363.0, 336.0, 332.0, 336.0, 355.0, 314.0, 308.0, 364.0, 339.0, 344.0, 351.0, 339.0, 365.0, 344.0, 307.0, 336.0, 333.0, 311.0, 308.0, 269.0, 201.0, 170.0, 102.0, 44.0, 12.0, 11.0, 2.0, 0.0, 2.0], "bins": [-0.11967626214027405, -0.11590157449245453, -0.11212688684463501, -0.1083521917462349, -0.10457750409841537, -0.10080281645059586, -0.09702812135219574, -0.09325343370437622, -0.0894787460565567, -0.08570405840873718, -0.08192937076091766, -0.07815467566251755, -0.07437998801469803, -0.07060530036687851, -0.0668306052684784, -0.06305591762065887, -0.059281229972839355, -0.055506542325019836, -0.05173185095191002, -0.0479571595788002, -0.04418247193098068, -0.04040778428316116, -0.036633092910051346, -0.03285840153694153, -0.02908371388912201, -0.02530902437865734, -0.021534334868192673, -0.017759645357728004, -0.013984955847263336, -0.010210266336798668, -0.006435576826334, -0.0026608873158693314, 0.0011138096451759338, 0.004888499155640602, 0.00866318866610527, 0.012437878176569939, 0.016212567687034607, 0.019987257197499275, 0.023761946707963943, 0.027536636218428612, 0.03131132572889328, 0.0350860133767128, 0.03886070474982262, 0.042635396122932434, 0.04641008377075195, 0.05018477141857147, 0.05395946279168129, 0.05773415416479111, 0.061508841812610626, 0.06528352946043015, 0.06905822455883026, 0.07283291220664978, 0.0766075998544693, 0.08038228750228882, 0.08415697515010834, 0.08793167024850845, 0.09170635789632797, 0.09548104554414749, 0.09925574064254761, 0.10303042829036713, 0.10680511593818665, 0.11057980358600616, 0.11435449123382568, 0.1181291863322258, 0.12190387398004532]}, "parameters/layers.4.bias": {"_type": "histogram", "values": [2.0, 3.0, 3.0, 0.0, 1.0, 0.0, 2.0, 3.0, 1.0, 3.0, 2.0, 2.0, 3.0, 2.0, 1.0, 0.0, 2.0, 4.0, 0.0, 4.0, 2.0, 3.0, 1.0, 0.0, 1.0, 2.0, 1.0, 1.0, 4.0, 1.0, 2.0, 3.0, 1.0, 0.0, 2.0, 2.0, 2.0, 0.0, 2.0, 2.0, 5.0, 3.0, 1.0, 4.0, 3.0, 5.0, 0.0, 1.0, 3.0, 1.0, 2.0, 2.0, 3.0, 3.0, 2.0, 3.0, 2.0, 4.0, 2.0, 0.0, 1.0, 3.0, 2.0, 3.0], "bins": [-0.07557953894138336, -0.0728745311498642, -0.07016953080892563, -0.06746452301740646, -0.0647595152258873, -0.06205451115965843, -0.059349507093429565, -0.0566444993019104, -0.053939495235681534, -0.05123449116945267, -0.0485294833779335, -0.045824479311704636, -0.04311947524547577, -0.040414467453956604, -0.03770946338772774, -0.03500445559620857, -0.032299451529979706, -0.02959444560110569, -0.026889439672231674, -0.024184435606002808, -0.021479429677128792, -0.018774423748254776, -0.01606941968202591, -0.013364413753151894, -0.010659407824277878, -0.007954401895403862, -0.005249396897852421, -0.0025443914346396923, 0.0001606140285730362, 0.0028656194917857647, 0.005570624954998493, 0.008275629952549934, 0.010980643332004547, 0.013685649260878563, 0.01639065518975258, 0.019095659255981445, 0.02180066518485546, 0.024505671113729477, 0.027210675179958344, 0.02991568110883236, 0.032620687037706375, 0.03532569110393524, 0.03803069889545441, 0.04073570296168327, 0.04344070702791214, 0.046145714819431305, 0.04885071888566017, 0.05155572667717934, 0.0542607307434082, 0.05696573480963707, 0.059670742601156235, 0.0623757466673851, 0.06508075445890427, 0.06778575479984283, 0.070490762591362, 0.07319577038288116, 0.07590077817440033, 0.0786057785153389, 0.08131078630685806, 0.08401579409837723, 0.0867207944393158, 0.08942580223083496, 0.09213081002235413, 0.0948358103632927, 0.09754081815481186]}, "gradients/layers.4.bias": {"_type": "histogram", "values": [1.0, 1.0, 2.0, 0.0, 2.0, 1.0, 2.0, 0.0, 2.0, 3.0, 1.0, 2.0, 2.0, 2.0, 2.0, 0.0, 5.0, 3.0, 5.0, 3.0, 3.0, 4.0, 4.0, 2.0, 4.0, 7.0, 2.0, 8.0, 2.0, 3.0, 1.0, 5.0, 2.0, 5.0, 3.0, 2.0, 4.0, 6.0, 2.0, 6.0, 1.0, 1.0, 1.0, 2.0, 1.0, 4.0, 1.0, 0.0, 0.0, 1.0, 0.0, 0.0, 0.0, 0.0, 1.0, 0.0, 0.0, 0.0, 0.0, 0.0, 0.0, 0.0, 0.0, 1.0], "bins": [-7.199140548706055, -6.932294845581055, -6.665449619293213, -6.398603916168213, -6.131758213043213, -5.864912986755371, -5.598067283630371, -5.331221580505371, -5.064375877380371, -4.797530651092529, -4.530684947967529, -4.263839244842529, -3.9969940185546875, -3.7301483154296875, -3.4633028507232666, -3.1964571475982666, -2.9296116828918457, -2.662766218185425, -2.395920515060425, -2.129075050354004, -1.8622294664382935, -1.595383882522583, -1.328538417816162, -1.0616928339004517, -0.7948472499847412, -0.5280016660690308, -0.2611561417579651, 0.005689412355422974, 0.27253496646881104, 0.5393805503845215, 0.8062260746955872, 1.0730715990066528, 1.3399171829223633, 1.6067627668380737, 1.8736083507537842, 2.140453815460205, 2.407299518585205, 2.674144983291626, 2.940990447998047, 3.207836151123047, 3.4746816158294678, 3.7415270805358887, 4.008372783660889, 4.275218486785889, 4.5420637130737305, 4.8089094161987305, 5.0757551193237305, 5.342600345611572, 5.609446048736572, 5.876291751861572, 6.143136978149414, 6.409982681274414, 6.676828384399414, 6.943673610687256, 7.210519313812256, 7.477365016937256, 7.744210243225098, 8.011055946350098, 8.277901649475098, 8.544747352600098, 8.811593055725098, 9.078437805175781, 9.345283508300781, 9.612129211425781, 9.878974914550781]}, "gradients/layers.4.weight": {"_type": "histogram", "values": [1.0, 0.0, 0.0, 0.0, 1.0, 1.0, 0.0, 0.0, 4.0, 3.0, 7.0, 3.0, 7.0, 13.0, 20.0, 19.0, 19.0, 42.0, 41.0, 60.0, 85.0, 104.0, 123.0, 177.0, 249.0, 342.0, 495.0, 814.0, 1183.0, 1594.0, 1943.0, 2086.0, 1869.0, 1464.0, 1137.0, 756.0, 479.0, 331.0, 252.0, 162.0, 119.0, 84.0, 64.0, 55.0, 51.0, 27.0, 30.0, 22.0, 14.0, 4.0, 6.0, 8.0, 4.0, 4.0, 2.0, 0.0, 1.0, 0.0, 1.0, 0.0, 0.0, 0.0, 1.0, 1.0], "bins": [-13.252716064453125, -12.830913543701172, -12.409111022949219, -11.987308502197266, -11.565505981445312, -11.14370346069336, -10.721901893615723, -10.30009937286377, -9.878296852111816, -9.456494331359863, -9.03469181060791, -8.612889289855957, -8.191086769104004, -7.769284248352051, -7.347482204437256, -6.925679683685303, -6.50387716293335, -6.0820746421813965, -5.660272121429443, -5.238470077514648, -4.816667556762695, -4.394865036010742, -3.973062515258789, -3.551260232925415, -3.129457712173462, -2.707655191421509, -2.2858529090881348, -1.8640503883361816, -1.442247986793518, -1.0204455852508545, -0.5986431241035461, -0.17684069275856018, 0.24496173858642578, 0.6667641401290894, 1.088566541671753, 1.510369062423706, 1.9321714639663696, 2.353973865509033, 2.7757763862609863, 3.1975786685943604, 3.6193811893463135, 4.0411834716796875, 4.462985992431641, 4.884788513183594, 5.306591033935547, 5.7283935546875, 6.150195598602295, 6.571998119354248, 6.993800640106201, 7.415603160858154, 7.837405681610107, 8.259207725524902, 8.681010246276855, 9.102812767028809, 9.524615287780762, 9.946417808532715, 10.368220329284668, 10.790022850036621, 11.211825370788574, 11.633626937866211, 12.055429458618164, 12.477231979370117, 12.89903450012207, 13.320837020874023, 13.742639541625977]}, "gradients/layers.3.bias": {"_type": "histogram", "values": [1.0, 1.0, 0.0, 0.0, 0.0, 0.0, 0.0, 2.0, 1.0, 0.0, 1.0, 0.0, 2.0, 3.0, 1.0, 3.0, 0.0, 3.0, 4.0, 5.0, 0.0, 3.0, 7.0, 3.0, 5.0, 4.0, 3.0, 2.0, 5.0, 5.0, 0.0, 2.0, 8.0, 9.0, 3.0, 2.0, 7.0, 4.0, 1.0, 2.0, 4.0, 3.0, 4.0, 2.0, 2.0, 1.0, 0.0, 2.0, 0.0, 0.0, 1.0, 0.0, 2.0, 1.0, 0.0, 0.0, 0.0, 0.0, 0.0, 1.0, 0.0, 0.0, 2.0, 1.0], "bins": [-3.2899694442749023, -3.18457293510437, -3.079176425933838, -2.9737799167633057, -2.8683834075927734, -2.762986660003662, -2.65759015083313, -2.5521936416625977, -2.4467971324920654, -2.341400623321533, -2.236004114151001, -2.1306076049804688, -2.0252108573913574, -1.9198144674301147, -1.814417839050293, -1.7090213298797607, -1.6036248207092285, -1.4982283115386963, -1.392831802368164, -1.2874351739883423, -1.18203866481781, -1.0766421556472778, -0.9712455868721008, -0.8658490180969238, -0.7604525089263916, -0.6550559997558594, -0.5496594309806824, -0.44426289200782776, -0.33886635303497314, -0.23346981406211853, -0.12807327508926392, -0.022676736116409302, 0.08271980285644531, 0.18811634182929993, 0.29351288080215454, 0.39890941977500916, 0.5043059587478638, 0.609702467918396, 0.715099036693573, 0.82049560546875, 0.9258921146392822, 1.0312886238098145, 1.1366851329803467, 1.2420817613601685, 1.3474782705307007, 1.452874779701233, 1.5582714080810547, 1.663667917251587, 1.7690644264221191, 1.8744609355926514, 1.9798574447631836, 2.085253953933716, 2.190650463104248, 2.2960472106933594, 2.4014437198638916, 2.506840229034424, 2.612236738204956, 2.7176332473754883, 2.8230297565460205, 2.9284262657165527, 3.033823013305664, 3.1392195224761963, 3.2446160316467285, 3.3500125408172607, 3.455409049987793]}, "gradients/layers.3.weight": {"_type": "histogram", "values": [3.0, 2.0, 3.0, 4.0, 2.0, 4.0, 6.0, 7.0, 11.0, 28.0, 21.0, 25.0, 18.0, 40.0, 44.0, 66.0, 86.0, 109.0, 158.0, 186.0, 242.0, 321.0, 444.0, 673.0, 970.0, 1251.0, 1693.0, 2168.0, 2652.0, 2966.0, 3158.0, 3065.0, 2747.0, 2329.0, 1884.0, 1447.0, 996.0, 811.0, 522.0, 411.0, 291.0, 210.0, 161.0, 115.0, 95.0, 81.0, 60.0, 33.0, 24.0, 29.0, 22.0, 16.0, 12.0, 8.0, 7.0, 6.0, 10.0, 3.0, 5.0, 1.0, 2.0, 1.0, 0.0, 3.0], "bins": [-3.521104335784912, -3.4064040184020996, -3.291703701019287, -3.1770033836364746, -3.062303066253662, -2.9476027488708496, -2.832902431488037, -2.7182021141052246, -2.603501796722412, -2.4888014793395996, -2.374101161956787, -2.2594008445739746, -2.144700527191162, -2.0300002098083496, -1.915299892425537, -1.8005995750427246, -1.685899257659912, -1.5711989402770996, -1.456498622894287, -1.3417983055114746, -1.227097988128662, -1.1123976707458496, -0.9976973533630371, -0.8829970359802246, -0.7682967185974121, -0.6535964012145996, -0.5388960838317871, -0.4241957664489746, -0.3094954490661621, -0.1947951316833496, -0.08009481430053711, 0.03460550308227539, 0.1493058204650879, 0.2640061378479004, 0.3787064552307129, 0.4934067726135254, 0.6081070899963379, 0.7228074073791504, 0.8375077247619629, 0.9522080421447754, 1.066908359527588, 1.1816086769104004, 1.296308994293213, 1.4110093116760254, 1.525709629058838, 1.6404099464416504, 1.755110263824463, 1.8698105812072754, 1.984510898590088, 2.0992112159729004, 2.213911533355713, 2.3286118507385254, 2.443312168121338, 2.5580124855041504, 2.672712802886963, 2.7874131202697754, 2.902113437652588, 3.0168137550354004, 3.131514072418213, 3.2462143898010254, 3.360914707183838, 3.4756150245666504, 3.590315341949463, 3.7050156593322754, 3.819715976715088]}, "gradients/layers.2.bias": {"_type": "histogram", "values": [1.0, 0.0, 0.0, 0.0, 0.0, 0.0, 0.0, 0.0, 1.0, 0.0, 1.0, 0.0, 0.0, 0.0, 3.0, 1.0, 2.0, 1.0, 5.0, 3.0, 6.0, 5.0, 5.0, 8.0, 4.0, 4.0, 7.0, 8.0, 10.0, 8.0, 7.0, 8.0, 5.0, 2.0, 10.0, 9.0, 12.0, 9.0, 5.0, 8.0, 10.0, 8.0, 13.0, 5.0, 7.0, 6.0, 2.0, 4.0, 10.0, 7.0, 1.0, 4.0, 3.0, 1.0, 0.0, 4.0, 4.0, 5.0, 0.0, 1.0, 1.0, 1.0, 0.0, 1.0], "bins": [-1.5066053867340088, -1.465010166168213, -1.423414945602417, -1.381819725036621, -1.3402245044708252, -1.2986294031143188, -1.257034182548523, -1.215438961982727, -1.1738437414169312, -1.1322485208511353, -1.0906533002853394, -1.0490580797195435, -1.007462978363037, -0.9658676981925964, -0.9242725372314453, -0.8826773166656494, -0.8410820960998535, -0.7994868755340576, -0.7578916549682617, -0.7162964940071106, -0.6747012734413147, -0.6331060528755188, -0.5915108919143677, -0.5499156713485718, -0.5083204507827759, -0.46672523021698, -0.42513003945350647, -0.38353484869003296, -0.34193962812423706, -0.30034440755844116, -0.25874921679496765, -0.21715401113033295, -0.1755586862564087, -0.133963480591774, -0.09236827492713928, -0.05077306926250458, -0.009177863597869873, 0.03241734206676483, 0.07401254773139954, 0.11560775339603424, 0.15720295906066895, 0.19879816472530365, 0.24039337038993835, 0.28198856115341187, 0.32358378171920776, 0.36517900228500366, 0.4067741930484772, 0.4483693838119507, 0.4899646043777466, 0.5315598249435425, 0.5731550455093384, 0.6147502064704895, 0.6563454270362854, 0.6979406476020813, 0.7395358085632324, 0.7811310291290283, 0.8227262496948242, 0.8643214702606201, 0.905916690826416, 0.9475118517875671, 0.989107072353363, 1.0307022333145142, 1.07229745388031, 1.113892674446106, 1.1554878950119019]}, "gradients/layers.2.weight": {"_type": "histogram", "values": [1.0, 1.0, 0.0, 2.0, 0.0, 2.0, 3.0, 0.0, 1.0, 3.0, 7.0, 3.0, 4.0, 10.0, 13.0, 21.0, 28.0, 35.0, 72.0, 88.0, 138.0, 181.0, 288.0, 419.0, 604.0, 897.0, 1396.0, 2067.0, 3160.0, 4652.0, 6546.0, 8733.0, 10923.0, 13334.0, 14220.0, 13943.0, 12706.0, 10274.0, 8028.0, 5851.0, 4101.0, 2769.0, 1824.0, 1225.0, 818.0, 545.0, 341.0, 248.0, 161.0, 115.0, 82.0, 52.0, 43.0, 24.0, 19.0, 19.0, 6.0, 8.0, 5.0, 3.0, 5.0, 1.0, 3.0, 1.0], "bins": [-1.340989589691162, -1.3024994134902954, -1.2640093564987183, -1.2255191802978516, -1.1870290040969849, -1.1485389471054077, -1.110048770904541, -1.0715585947036743, -1.0330684185028076, -0.9945783615112305, -0.9560881853103638, -0.9175980687141418, -0.8791079521179199, -0.8406177759170532, -0.8021276593208313, -0.7636374831199646, -0.7251473665237427, -0.6866572499275208, -0.648167073726654, -0.6096769571304321, -0.5711867809295654, -0.5326966643333435, -0.4942065477371216, -0.45571640133857727, -0.41722625494003296, -0.37873610854148865, -0.34024596214294434, -0.3017558455467224, -0.2632656991481781, -0.2247755527496338, -0.18628542125225067, -0.14779528975486755, -0.10930526256561279, -0.07081512361764908, -0.032324984669685364, 0.006165154278278351, 0.044655293226242065, 0.08314543217420578, 0.1216355711221695, 0.1601257026195526, 0.19861584901809692, 0.23710599541664124, 0.27559614181518555, 0.31408625841140747, 0.3525764048099518, 0.3910665512084961, 0.429556667804718, 0.46804681420326233, 0.5065369606018066, 0.5450270771980286, 0.5835172533988953, 0.6220073699951172, 0.6604975461959839, 0.6989876627922058, 0.7374777793884277, 0.7759679555892944, 0.8144580721855164, 0.8529481887817383, 0.891438364982605, 0.9299284815788269, 0.9684185981750488, 1.0069087743759155, 1.0453989505767822, 1.0838890075683594, 1.122379183769226]}, "gradients/layers.1.bias": {"_type": "histogram", "values": [1.0, 1.0, 1.0, 2.0, 4.0, 5.0, 2.0, 0.0, 5.0, 2.0, 4.0, 5.0, 6.0, 7.0, 8.0, 10.0, 8.0, 10.0, 12.0, 11.0, 17.0, 20.0, 17.0, 17.0, 16.0, 17.0, 19.0, 16.0, 24.0, 21.0, 20.0, 19.0, 26.0, 15.0, 20.0, 14.0, 9.0, 13.0, 13.0, 8.0, 9.0, 12.0, 6.0, 7.0, 3.0, 6.0, 3.0, 3.0, 4.0, 2.0, 2.0, 4.0, 2.0, 1.0, 0.0, 0.0, 0.0, 0.0, 0.0, 1.0, 1.0, 0.0, 0.0, 1.0], "bins": [-0.6437467336654663, -0.6205902695655823, -0.5974338054656982, -0.5742773413658142, -0.5511208772659302, -0.5279644131660461, -0.5048079490661621, -0.4816514551639557, -0.45849499106407166, -0.4353385269641876, -0.4121820628643036, -0.38902559876441956, -0.36586910486221313, -0.3427126407623291, -0.31955617666244507, -0.29639971256256104, -0.273243248462677, -0.25008678436279297, -0.22693032026290894, -0.2037738412618637, -0.18061737716197968, -0.15746091306209564, -0.13430443406105042, -0.11114796996116638, -0.08799150586128235, -0.06483504176139832, -0.041678570210933685, -0.018522102385759354, 0.004634365439414978, 0.02779083326458931, 0.05094730108976364, 0.07410377264022827, 0.0972602367401123, 0.12041670083999634, 0.14357316493988037, 0.1667296439409256, 0.18988610804080963, 0.21304257214069366, 0.2361990511417389, 0.2593555152416229, 0.28251197934150696, 0.305668443441391, 0.328824907541275, 0.35198137164115906, 0.3751378655433655, 0.3982943296432495, 0.42145079374313354, 0.4446072578430176, 0.4677637219429016, 0.49092018604278564, 0.5140766501426697, 0.5372331142425537, 0.5603895783424377, 0.5835460424423218, 0.6067025065422058, 0.6298589706420898, 0.6530154943466187, 0.6761719584465027, 0.6993284225463867, 0.7224848866462708, 0.7456413507461548, 0.7687978148460388, 0.7919542789459229, 0.8151107430458069, 0.8382672071456909]}, "gradients/layers.1.weight": {"_type": "histogram", "values": [4.0, 0.0, 2.0, 6.0, 10.0, 9.0, 12.0, 15.0, 25.0, 34.0, 43.0, 51.0, 89.0, 131.0, 194.0, 248.0, 388.0, 574.0, 896.0, 1379.0, 2141.0, 3765.0, 7210.0, 14409.0, 29907.0, 57946.0, 91155.0, 107061.0, 89753.0, 56628.0, 29388.0, 13994.0, 6950.0, 3696.0, 2169.0, 1320.0, 839.0, 573.0, 382.0, 272.0, 169.0, 121.0, 100.0, 62.0, 38.0, 38.0, 23.0, 23.0, 6.0, 8.0, 8.0, 6.0, 11.0, 0.0, 0.0, 0.0, 1.0, 3.0, 1.0, 0.0, 1.0, 0.0, 0.0, 1.0], "bins": [-0.718931257724762, -0.6927664279937744, -0.6666015982627869, -0.6404368281364441, -0.6142719984054565, -0.588107168674469, -0.5619423389434814, -0.5357775092124939, -0.5096126794815063, -0.4834478795528412, -0.457283079624176, -0.4311182498931885, -0.4049534201622009, -0.37878862023353577, -0.3526237905025482, -0.32645899057388306, -0.3002941608428955, -0.27412933111190796, -0.2479645311832428, -0.22179970145225525, -0.1956348866224289, -0.16947007179260254, -0.143305242061615, -0.11714042723178864, -0.09097561240196228, -0.06481079757213593, -0.03864597529172897, -0.01248115673661232, 0.013683661818504333, 0.03984848037362099, 0.06601329892873764, 0.09217812120914459, 0.11834287643432617, 0.14450769126415253, 0.17067250609397888, 0.19683733582496643, 0.22300215065479279, 0.24916696548461914, 0.2753317952156067, 0.30149659514427185, 0.3276614248752594, 0.35382625460624695, 0.3799910545349121, 0.40615588426589966, 0.4323207139968872, 0.45848551392555237, 0.4846503436565399, 0.5108151435852051, 0.5369799733161926, 0.5631448030471802, 0.5893096327781677, 0.6154744029045105, 0.641639232635498, 0.6678040623664856, 0.6939688920974731, 0.7201337218284607, 0.7462985515594482, 0.772463321685791, 0.7986281514167786, 0.8247929811477661, 0.8509578108787537, 0.8771226406097412, 0.903287410736084, 0.9294522404670715, 0.9556170701980591]}, "gradients/layers.0.bias": {"_type": "histogram", "values": [1.0, 0.0, 0.0, 0.0, 0.0, 0.0, 0.0, 1.0, 1.0, 2.0, 0.0, 1.0, 0.0, 2.0, 3.0, 3.0, 4.0, 5.0, 5.0, 5.0, 9.0, 11.0, 9.0, 18.0, 14.0, 25.0, 25.0, 27.0, 31.0, 38.0, 43.0, 38.0, 33.0, 59.0, 57.0, 51.0, 61.0, 41.0, 51.0, 56.0, 43.0, 38.0, 38.0, 20.0, 32.0, 22.0, 20.0, 19.0, 14.0, 15.0, 5.0, 3.0, 7.0, 7.0, 2.0, 4.0, 1.0, 1.0, 1.0, 1.0, 0.0, 0.0, 0.0, 1.0], "bins": [-0.8409940004348755, -0.8174015879631042, -0.793809175491333, -0.7702167630195618, -0.7466242909431458, -0.7230318784713745, -0.6994394659996033, -0.675847053527832, -0.6522546410560608, -0.6286622285842896, -0.6050697565078735, -0.5814773440361023, -0.557884931564331, -0.5342925190925598, -0.5107001066207886, -0.48710766434669495, -0.4635152518749237, -0.43992283940315247, -0.41633039712905884, -0.3927379846572876, -0.36914557218551636, -0.34555312991142273, -0.3219607174396515, -0.29836830496788025, -0.2747758626937866, -0.2511834502220154, -0.22759103775024414, -0.2039986103773117, -0.18040618300437927, -0.15681377053260803, -0.1332213431596756, -0.10962892323732376, -0.08603650331497192, -0.06244408339262009, -0.03885165974497795, -0.015259237959980965, 0.008333183825016022, 0.03192560374736786, 0.055518027395009995, 0.07911045104265213, 0.10270287096500397, 0.1262952983379364, 0.14988771080970764, 0.17348013818264008, 0.1970725655555725, 0.22066497802734375, 0.24425740540027618, 0.2678498327732086, 0.29144224524497986, 0.3150346577167511, 0.3386270999908447, 0.36221951246261597, 0.3858119249343872, 0.40940436720848083, 0.4329967796802521, 0.4565891921520233, 0.48018163442611694, 0.5037740468978882, 0.5273664593696594, 0.5509588718414307, 0.5745512843132019, 0.5981437563896179, 0.6217361688613892, 0.6453285813331604, 0.6689209938049316]}, "gradients/layers.0.weight": {"_type": "histogram", "values": [2.0, 2.0, 2.0, 4.0, 8.0, 9.0, 6.0, 16.0, 24.0, 25.0, 44.0, 55.0, 91.0, 124.0, 155.0, 241.0, 297.0, 474.0, 705.0, 928.0, 1319.0, 1777.0, 2378.0, 3008.0, 4016.0, 5198.0, 6427.0, 7703.0, 8956.0, 9751.0, 10527.0, 10633.0, 10211.0, 9258.0, 8141.0, 6869.0, 5704.0, 4436.0, 3495.0, 2506.0, 1815.0, 1241.0, 837.0, 541.0, 358.0, 259.0, 185.0, 99.0, 70.0, 36.0, 35.0, 22.0, 12.0, 12.0, 7.0, 4.0, 5.0, 3.0, 4.0, 0.0, 0.0, 1.0, 0.0, 1.0], "bins": [-0.64698725938797, -0.62615567445755, -0.6053241491317749, -0.584492564201355, -0.5636609792709351, -0.5428294539451599, -0.52199786901474, -0.5011663436889648, -0.4803347587585449, -0.4595032036304474, -0.43867164850234985, -0.41784006357192993, -0.3970085084438324, -0.37617695331573486, -0.35534536838531494, -0.3345138132572174, -0.3136822581291199, -0.29285070300102234, -0.2720191478729248, -0.2511875629425049, -0.23035600781440735, -0.20952445268630981, -0.1886928826570511, -0.16786131262779236, -0.14702975749969482, -0.1261982023715973, -0.10536663234233856, -0.08453506976366043, -0.0637035071849823, -0.04287194460630417, -0.022040382027626038, -0.0012088194489479065, 0.019622802734375, 0.04045436531305313, 0.06128592789173126, 0.0821174904704094, 0.10294905304908752, 0.12378061562776566, 0.1446121782064438, 0.16544374823570251, 0.18627530336380005, 0.20710685849189758, 0.2279384285211563, 0.24876999855041504, 0.2696015536785126, 0.2904331088066101, 0.31126469373703003, 0.33209624886512756, 0.3529278039932251, 0.37375935912132263, 0.39459091424942017, 0.4154224991798401, 0.4362540543079376, 0.45708560943603516, 0.4779171943664551, 0.4987487494945526, 0.5195803046226501, 0.5404118895530701, 0.5612434148788452, 0.5820749998092651, 0.6029065847396851, 0.6237381100654602, 0.6445696949958801, 0.6654012203216553, 0.6862328052520752]}, "timers/ezpz.setup_torch": 5.412041834089905, "timers/imports": 2.174079418182373e-05, "timers/init_to_first_step": 8.544421301223338, "_wandb": {"runtime": 14}}