{"train/iter": 99, "train/dt": 0.15114127984270453, "train/dtf": 0.06712935399264097, "train/dtb": 0.08401192585006356, "train/loss": 334.6140441894531, "train/sps": 423.44487268207575, "_timestamp": 1732663899.385, "_runtime": 15.989717960357666, "_step": 99, "parameters/layers.0.weight": {"_type": "histogram", "values": [2.0, 2.0, 8.0, 20.0, 35.0, 73.0, 232.0, 540.0, 985.0, 1733.0, 2445.0, 2701.0, 2840.0, 2898.0, 2914.0, 2845.0, 2897.0, 2833.0, 2857.0, 2730.0, 2738.0, 2758.0, 2853.0, 2827.0, 2930.0, 2868.0, 2807.0, 2887.0, 2833.0, 2813.0, 2910.0, 2824.0, 2802.0, 2924.0, 2783.0, 2800.0, 2844.0, 2901.0, 2811.0, 2917.0, 2767.0, 2786.0, 2893.0, 2810.0, 2852.0, 2759.0, 2873.0, 2758.0, 2922.0, 2907.0, 2852.0, 2693.0, 2636.0, 2416.0, 1704.0, 1104.0, 550.0, 210.0, 78.0, 49.0, 21.0, 7.0, 4.0, 1.0], "bins": [-0.12580160796642303, -0.12186538428068161, -0.11792916059494019, -0.11399293690919876, -0.11005671322345734, -0.10612048953771591, -0.10218426585197449, -0.09824804216623306, -0.09431181848049164, -0.09037559479475021, -0.08643937110900879, -0.08250314742326736, -0.07856692373752594, -0.07463070005178452, -0.07069447636604309, -0.06675825268030167, -0.06282202899456024, -0.05888580530881882, -0.05494958162307739, -0.05101335793733597, -0.04707713425159454, -0.04314091056585312, -0.039204686880111694, -0.03526846319437027, -0.031332239508628845, -0.02739601582288742, -0.023459792137145996, -0.01952356845140457, -0.015587344765663147, -0.011651121079921722, -0.007714897394180298, -0.0037786737084388733, 0.00015754997730255127, 0.004093773663043976, 0.0080299973487854, 0.011966221034526825, 0.01590244472026825, 0.019838668406009674, 0.0237748920917511, 0.027711115777492523, 0.03164733946323395, 0.03558356314897537, 0.0395197868347168, 0.04345601052045822, 0.047392234206199646, 0.05132845789194107, 0.055264681577682495, 0.05920090526342392, 0.06313712894916534, 0.06707335263490677, 0.0710095763206482, 0.07494580000638962, 0.07888202369213104, 0.08281824737787247, 0.08675447106361389, 0.09069069474935532, 0.09462691843509674, 0.09856314212083817, 0.10249936580657959, 0.10643558949232101, 0.11037181317806244, 0.11430803686380386, 0.11824426054954529, 0.12218048423528671, 0.12611670792102814]}, "parameters/layers.0.bias": {"_type": "histogram", "values": [3.0, 7.0, 14.0, 15.0, 16.0, 15.0, 19.0, 14.0, 14.0, 14.0, 16.0, 14.0, 16.0, 24.0, 10.0, 20.0, 15.0, 15.0, 25.0, 12.0, 13.0, 18.0, 18.0, 15.0, 20.0, 15.0, 15.0, 16.0, 19.0, 19.0, 24.0, 22.0, 12.0, 18.0, 16.0, 20.0, 18.0, 11.0, 19.0, 17.0, 18.0, 14.0, 23.0, 17.0, 23.0, 14.0, 22.0, 20.0, 15.0, 15.0, 12.0, 14.0, 18.0, 12.0, 22.0, 17.0, 9.0, 25.0, 12.0, 16.0, 14.0, 17.0, 10.0, 2.0], "bins": [-0.09323471784591675, -0.09031780809164047, -0.0874008908867836, -0.08448398113250732, -0.08156706392765045, -0.07865015417337418, -0.0757332444190979, -0.07281632721424103, -0.06989941745996475, -0.06698250770568848, -0.0640655905008316, -0.06114868074655533, -0.058231767266988754, -0.05531485378742218, -0.052397944033145905, -0.04948103055357933, -0.046564117074012756, -0.04364720359444618, -0.04073029011487961, -0.03781338036060333, -0.03489646688103676, -0.031979553401470184, -0.02906264178454876, -0.026145730167627335, -0.02322881668806076, -0.020311903208494186, -0.01739499159157276, -0.014478079043328762, -0.011561166495084763, -0.008644253946840763, -0.005727341398596764, -0.002810428850352764, 0.00010649114847183228, 0.0030234036967158318, 0.005940316244959831, 0.00885722879320383, 0.01177414134144783, 0.01469105388969183, 0.01760796643793583, 0.020524878054857254, 0.023441791534423828, 0.026358705013990402, 0.029275616630911827, 0.03219252824783325, 0.035109441727399826, 0.0380263552069664, 0.040943264961242676, 0.04386017844080925, 0.046777091920375824, 0.0496940053999424, 0.05261091887950897, 0.05552782863378525, 0.05844474211335182, 0.061361655592918396, 0.06427856534719467, 0.06719548255205154, 0.07011239230632782, 0.0730293020606041, 0.07594621926546097, 0.07886312901973724, 0.08178004622459412, 0.08469695597887039, 0.08761386573314667, 0.09053078293800354, 0.09344769269227982]}, "parameters/layers.1.weight": {"_type": "histogram", "values": [2.0, 2.0, 3.0, 9.0, 10.0, 20.0, 32.0, 49.0, 84.0, 95.0, 169.0, 242.0, 334.0, 442.0, 640.0, 930.0, 1326.0, 1823.0, 2595.0, 3834.0, 5809.0, 9076.0, 13223.0, 17613.0, 21659.0, 24578.0, 25960.0, 27729.0, 28110.0, 28705.0, 28703.0, 28925.0, 28664.0, 28769.0, 28328.0, 27850.0, 26783.0, 25008.0, 22408.0, 18784.0, 14415.0, 9994.0, 6541.0, 4300.0, 2928.0, 1969.0, 1426.0, 1016.0, 714.0, 504.0, 398.0, 258.0, 140.0, 128.0, 89.0, 52.0, 36.0, 26.0, 13.0, 6.0, 6.0, 0.0, 2.0, 2.0], "bins": [-0.11517927050590515, -0.1115390732884407, -0.10789887607097626, -0.10425867885351181, -0.10061848163604736, -0.09697829186916351, -0.09333809465169907, -0.08969789743423462, -0.08605770021677017, -0.08241750299930573, -0.07877730578184128, -0.07513710856437683, -0.07149691879749298, -0.06785672158002853, -0.06421652436256409, -0.06057632714509964, -0.05693612992763519, -0.053295932710170746, -0.0496557354927063, -0.04601554200053215, -0.0423753447830677, -0.038735147565603256, -0.03509495407342911, -0.03145475685596466, -0.027814559638500214, -0.024174362421035767, -0.02053416706621647, -0.01689397171139717, -0.013253774493932724, -0.009613578207790852, -0.005973381921648979, -0.0023331856355071068, 0.0013070032000541687, 0.004947199486196041, 0.008587395772337914, 0.012227592058479786, 0.01586778834462166, 0.019507985562086105, 0.023148180916905403, 0.0267883762717247, 0.030428573489189148, 0.034068770706653595, 0.03770896792411804, 0.04134916141629219, 0.04498935863375664, 0.048629555851221085, 0.05226974934339523, 0.05590994656085968, 0.05955014377832413, 0.06319034099578857, 0.06683053821325302, 0.07047073543071747, 0.07411092519760132, 0.07775112241506577, 0.08139131963253021, 0.08503151684999466, 0.0886717140674591, 0.09231191128492355, 0.095952108502388, 0.09959230571985245, 0.1032325029373169, 0.10687269270420074, 0.11051288992166519, 0.11415308713912964, 0.11779328435659409]}, "parameters/layers.1.bias": {"_type": "histogram", "values": [3.0, 3.0, 2.0, 4.0, 6.0, 5.0, 8.0, 10.0, 11.0, 8.0, 5.0, 11.0, 10.0, 7.0, 7.0, 5.0, 6.0, 7.0, 16.0, 8.0, 13.0, 9.0, 8.0, 8.0, 14.0, 10.0, 10.0, 9.0, 7.0, 4.0, 11.0, 13.0, 5.0, 15.0, 10.0, 11.0, 6.0, 7.0, 7.0, 14.0, 6.0, 9.0, 6.0, 9.0, 4.0, 9.0, 6.0, 3.0, 10.0, 9.0, 9.0, 13.0, 16.0, 7.0, 6.0, 9.0, 10.0, 7.0, 10.0, 4.0, 7.0, 3.0, 5.0, 2.0], "bins": [-0.035917215049266815, -0.03480879217386246, -0.0337003730237484, -0.03259195014834404, -0.03148352727293968, -0.030375106260180473, -0.029266685247421265, -0.028158262372016907, -0.027049841359257698, -0.02594142034649849, -0.02483299747109413, -0.023724576458334923, -0.022616155445575714, -0.021507732570171356, -0.020399311557412148, -0.01929088868200779, -0.01818246766924858, -0.017074046656489372, -0.015965623781085014, -0.014857202768325806, -0.013748780824244022, -0.012640358880162239, -0.01153193786740303, -0.010423515923321247, -0.009315093979239464, -0.00820667203515768, -0.0070982505567371845, -0.0059898290783166885, -0.004881407134234905, -0.0037729854229837656, -0.002664563711732626, -0.0015561420004814863, -0.0004477165639400482, 0.0006607051473110914, 0.001769126858562231, 0.0028775485698133707, 0.00398597028106451, 0.005094392225146294, 0.00620281370356679, 0.007311235181987286, 0.008419657126069069, 0.009528079070150852, 0.010636501014232635, 0.011744922026991844, 0.012853343971073627, 0.01396176591515541, 0.01507018692791462, 0.016178609803318977, 0.017287030816078186, 0.018395451828837395, 0.019503874704241753, 0.02061229571700096, 0.02172071859240532, 0.022829139605164528, 0.023937560617923737, 0.025045983493328094, 0.026154404506087303, 0.027262825518846512, 0.02837124839425087, 0.02947966940701008, 0.030588090419769287, 0.031696513295173645, 0.032804936170578, 0.03391335532069206, 0.03502177819609642]}, "parameters/layers.2.weight": {"_type": "histogram", "values": [2.0, 1.0, 0.0, 2.0, 1.0, 2.0, 3.0, 7.0, 11.0, 7.0, 21.0, 24.0, 68.0, 106.0, 152.0, 234.0, 372.0, 684.0, 1242.0, 2159.0, 3394.0, 4224.0, 4666.0, 4874.0, 5016.0, 5040.0, 4963.0, 4988.0, 5035.0, 4827.0, 5019.0, 5041.0, 5055.0, 5105.0, 4973.0, 4928.0, 5084.0, 5053.0, 5033.0, 4974.0, 4973.0, 4881.0, 4758.0, 4561.0, 3634.0, 2389.0, 1437.0, 816.0, 504.0, 289.0, 159.0, 123.0, 51.0, 38.0, 24.0, 15.0, 10.0, 7.0, 3.0, 4.0, 4.0, 0.0, 0.0, 2.0], "bins": [-0.11910603195428848, -0.11545521765947342, -0.11180440336465836, -0.10815358906984329, -0.10450277477502823, -0.10085196048021317, -0.0972011461853981, -0.09355033189058304, -0.08989951759576797, -0.08624870330095291, -0.08259788900613785, -0.07894707471132278, -0.07529626041650772, -0.07164544612169266, -0.0679946318268776, -0.06434381753206253, -0.06069300323724747, -0.057042188942432404, -0.05339137464761734, -0.04974056035280228, -0.04608974605798721, -0.04243893176317215, -0.038788117468357086, -0.03513730317354202, -0.03148648887872696, -0.027835674583911896, -0.024184860289096832, -0.02053404599428177, -0.016883231699466705, -0.013232417404651642, -0.009581603109836578, -0.005930788815021515, -0.0022799670696258545, 0.001370847225189209, 0.0050216615200042725, 0.008672475814819336, 0.0123232901096344, 0.015974104404449463, 0.019624918699264526, 0.02327573299407959, 0.026926547288894653, 0.030577361583709717, 0.03422817587852478, 0.037878990173339844, 0.04152980446815491, 0.04518061876296997, 0.048831433057785034, 0.0524822473526001, 0.05613306164741516, 0.059783875942230225, 0.06343469023704529, 0.06708550453186035, 0.07073631882667542, 0.07438713312149048, 0.07803794741630554, 0.0816887617111206, 0.08533957600593567, 0.08899039030075073, 0.0926412045955658, 0.09629201889038086, 0.09994283318519592, 0.10359364748001099, 0.10724446177482605, 0.11089527606964111, 0.11454609036445618]}, "parameters/layers.2.bias": {"_type": "histogram", "values": [1.0, 1.0, 1.0, 3.0, 2.0, 3.0, 2.0, 1.0, 8.0, 6.0, 5.0, 4.0, 4.0, 7.0, 7.0, 3.0, 1.0, 7.0, 9.0, 6.0, 3.0, 9.0, 4.0, 5.0, 5.0, 5.0, 4.0, 4.0, 1.0, 5.0, 5.0, 2.0, 4.0, 4.0, 3.0, 5.0, 1.0, 2.0, 6.0, 4.0, 1.0, 8.0, 5.0, 3.0, 8.0, 3.0, 2.0, 4.0, 6.0, 4.0, 6.0, 5.0, 4.0, 5.0, 3.0, 3.0, 3.0, 6.0, 1.0, 6.0, 1.0, 1.0, 4.0, 2.0], "bins": [-0.050299618393182755, -0.04877036064863205, -0.047241102904081345, -0.04571184515953064, -0.044182587414979935, -0.04265332967042923, -0.041124071925878525, -0.03959481418132782, -0.038065556436777115, -0.03653629869222641, -0.035007040947675705, -0.033477783203125, -0.031948525458574295, -0.03041926771402359, -0.028890009969472885, -0.02736075222492218, -0.025831494480371475, -0.02430223673582077, -0.022772978991270065, -0.02124372124671936, -0.019714463502168655, -0.01818520575761795, -0.016655948013067245, -0.01512669026851654, -0.013597432523965836, -0.01206817477941513, -0.010538917034864426, -0.00900965929031372, -0.007480401545763016, -0.005951143801212311, -0.004421886056661606, -0.002892628312110901, -0.0013633742928504944, 0.00016588345170021057, 0.0016951411962509155, 0.0032243989408016205, 0.0047536566853523254, 0.00628291442990303, 0.007812172174453735, 0.00934142991900444, 0.010870687663555145, 0.01239994540810585, 0.013929203152656555, 0.01545846089720726, 0.016987718641757965, 0.01851697638630867, 0.020046234130859375, 0.02157549187541008, 0.023104749619960785, 0.02463400736451149, 0.026163265109062195, 0.0276925228536129, 0.029221780598163605, 0.03075103834271431, 0.032280296087265015, 0.03380955383181572, 0.035338811576366425, 0.03686806932091713, 0.038397327065467834, 0.03992658481001854, 0.041455842554569244, 0.04298510029911995, 0.044514358043670654, 0.04604361578822136, 0.047572873532772064]}, "parameters/layers.3.weight": {"_type": "histogram", "values": [2.0, 1.0, 2.0, 7.0, 6.0, 16.0, 20.0, 43.0, 57.0, 105.0, 208.0, 336.0, 528.0, 662.0, 802.0, 806.0, 857.0, 880.0, 798.0, 836.0, 859.0, 813.0, 859.0, 881.0, 845.0, 774.0, 815.0, 820.0, 837.0, 842.0, 850.0, 787.0, 816.0, 854.0, 825.0, 823.0, 844.0, 827.0, 814.0, 793.0, 816.0, 848.0, 815.0, 819.0, 861.0, 847.0, 833.0, 814.0, 751.0, 642.0, 463.0, 298.0, 168.0, 97.0, 66.0, 32.0, 20.0, 11.0, 4.0, 4.0, 4.0, 1.0, 2.0, 2.0], "bins": [-0.10648288577795029, -0.10308587551116943, -0.09968887269496918, -0.09629186987876892, -0.09289485961198807, -0.08949784934520721, -0.08610084652900696, -0.0827038437128067, -0.07930683344602585, -0.075909823179245, -0.07251282036304474, -0.06911581754684448, -0.06571880728006363, -0.062321800738573074, -0.05892479419708252, -0.055527787655591965, -0.05213078111410141, -0.048733774572610855, -0.0453367680311203, -0.041939761489629745, -0.03854275494813919, -0.035145748406648636, -0.03174874186515808, -0.028351735323667526, -0.02495472878217697, -0.021557722240686417, -0.018160715699195862, -0.014763709157705307, -0.011366702616214752, -0.007969696074724197, -0.004572689533233643, -0.0011756829917430878, 0.002221331000328064, 0.005618337541818619, 0.009015344083309174, 0.012412350624799728, 0.015809357166290283, 0.019206363707780838, 0.022603370249271393, 0.026000376790761948, 0.029397383332252502, 0.03279438987374306, 0.03619139641523361, 0.03958840295672417, 0.04298540949821472, 0.046382416039705276, 0.04977942258119583, 0.053176429122686386, 0.05657343566417694, 0.059970442205667496, 0.06336744874715805, 0.0667644590139389, 0.07016146183013916, 0.07355846464633942, 0.07695547491312027, 0.08035248517990112, 0.08374948799610138, 0.08714649081230164, 0.09054350107908249, 0.09394051134586334, 0.0973375141620636, 0.10073451697826385, 0.10413152724504471, 0.10752853751182556, 0.11092554032802582]}, "parameters/layers.3.bias": {"_type": "histogram", "values": [1.0, 2.0, 1.0, 0.0, 1.0, 2.0, 0.0, 1.0, 4.0, 3.0, 2.0, 3.0, 2.0, 5.0, 2.0, 0.0, 3.0, 1.0, 3.0, 1.0, 0.0, 1.0, 0.0, 4.0, 4.0, 1.0, 3.0, 2.0, 3.0, 4.0, 7.0, 3.0, 2.0, 2.0, 2.0, 0.0, 3.0, 3.0, 4.0, 2.0, 3.0, 0.0, 0.0, 3.0, 2.0, 4.0, 1.0, 3.0, 0.0, 1.0, 1.0, 3.0, 2.0, 1.0, 7.0, 2.0, 1.0, 2.0, 3.0, 0.0, 1.0, 0.0, 0.0, 1.0], "bins": [-0.07149022072553635, -0.06924616545438766, -0.06700211763381958, -0.0647580623626709, -0.06251401454210281, -0.06026996299624443, -0.05802591145038605, -0.055781859904527664, -0.05353780835866928, -0.0512937530875206, -0.049049701541662216, -0.04680564999580383, -0.04456159844994545, -0.04231754690408707, -0.040073495358228683, -0.0378294438123703, -0.03558539226651192, -0.033341340720653534, -0.03109728917479515, -0.028853237628936768, -0.026609186083078384, -0.024365132674574852, -0.02212108112871647, -0.019877029582858086, -0.017632978036999702, -0.01538892649114132, -0.013144874945282936, -0.010900822468101978, -0.008656770922243595, -0.006412719376385212, -0.0041686673648655415, -0.0019246155861765146, 0.0003194361925125122, 0.002563487971201539, 0.004807539749890566, 0.007051591761410236, 0.00929564330726862, 0.011539694853127003, 0.01378374733030796, 0.016027798876166344, 0.018271850422024727, 0.02051590196788311, 0.022759953513741493, 0.025004005059599876, 0.02724805846810341, 0.029492110013961792, 0.031736161559820175, 0.03398021310567856, 0.03622426465153694, 0.038468316197395325, 0.04071236774325371, 0.04295641928911209, 0.045200470834970474, 0.04744452238082886, 0.04968857392668724, 0.051932625472545624, 0.054176680743694305, 0.05642073228955269, 0.05866478383541107, 0.060908835381269455, 0.06315288692712784, 0.06539693474769592, 0.0676409900188446, 0.06988503783941269, 0.07212909311056137]}, "parameters/layers.4.weight": {"_type": "histogram", "values": [2.0, 2.0, 6.0, 13.0, 20.0, 53.0, 98.0, 151.0, 218.0, 253.0, 326.0, 313.0, 300.0, 337.0, 326.0, 347.0, 341.0, 347.0, 333.0, 296.0, 345.0, 322.0, 311.0, 353.0, 342.0, 346.0, 332.0, 354.0, 345.0, 321.0, 326.0, 316.0, 333.0, 334.0, 334.0, 326.0, 351.0, 297.0, 350.0, 329.0, 336.0, 338.0, 322.0, 333.0, 345.0, 311.0, 283.0, 317.0, 326.0, 328.0, 349.0, 330.0, 338.0, 336.0, 296.0, 236.0, 183.0, 143.0, 109.0, 43.0, 21.0, 5.0, 2.0, 5.0], "bins": [-0.12138161063194275, -0.1176447942852974, -0.11390798538923264, -0.11017116904258728, -0.10643436014652252, -0.10269754379987717, -0.09896073490381241, -0.09522391855716705, -0.0914871096611023, -0.08775029331445694, -0.08401347696781158, -0.08027666807174683, -0.07653985172510147, -0.07280304282903671, -0.06906622648239136, -0.0653294175863266, -0.061592601239681244, -0.05785578861832619, -0.05411897599697113, -0.050382163375616074, -0.04664535075426102, -0.04290853440761566, -0.039171721786260605, -0.03543490916490555, -0.03169809654355049, -0.027961283922195435, -0.024224471300840378, -0.020487656816840172, -0.016750844195485115, -0.013014031574130058, -0.009277218021452427, -0.005540404934436083, -0.0018035843968391418, 0.0019332286901772022, 0.005670041777193546, 0.009406855329871178, 0.013143667951226234, 0.01688048057258129, 0.020617295056581497, 0.024354107677936554, 0.02809092029929161, 0.03182773292064667, 0.035564545542001724, 0.03930135816335678, 0.043038174510002136, 0.04677498713135719, 0.05051179975271225, 0.054248612374067307, 0.05798542499542236, 0.06172223761677742, 0.06545905023813248, 0.06919586658477783, 0.07293267548084259, 0.07666949182748795, 0.0804063007235527, 0.08414311707019806, 0.08787992596626282, 0.09161674231290817, 0.09535355865955353, 0.09909036755561829, 0.10282718390226364, 0.1065639927983284, 0.11030080914497375, 0.11403761804103851, 0.11777443438768387]}, "parameters/layers.4.bias": {"_type": "histogram", "values": [1.0, 1.0, 4.0, 1.0, 2.0, 0.0, 2.0, 2.0, 0.0, 1.0, 4.0, 0.0, 0.0, 1.0, 1.0, 3.0, 0.0, 4.0, 3.0, 3.0, 0.0, 3.0, 0.0, 1.0, 1.0, 1.0, 3.0, 1.0, 1.0, 4.0, 2.0, 1.0, 1.0, 4.0, 2.0, 3.0, 4.0, 2.0, 3.0, 0.0, 2.0, 5.0, 4.0, 4.0, 2.0, 1.0, 4.0, 2.0, 1.0, 2.0, 3.0, 6.0, 2.0, 0.0, 3.0, 2.0, 3.0, 3.0, 0.0, 1.0, 1.0, 3.0, 3.0, 1.0], "bins": [-0.08098431676626205, -0.07822086662054062, -0.07545741647481918, -0.07269396632909775, -0.06993051618337631, -0.06716706603765488, -0.06440361589193344, -0.061640165746212006, -0.05887671560049057, -0.05611326918005943, -0.053349819034338, -0.05058636888861656, -0.047822918742895126, -0.04505946859717369, -0.042296018451452255, -0.03953256830573082, -0.036769118160009384, -0.03400566801428795, -0.031242217868566513, -0.028478767722845078, -0.025715317577123642, -0.022951869294047356, -0.02018841914832592, -0.017424969002604485, -0.014661518856883049, -0.011898068711161613, -0.009134618565440178, -0.006371169351041317, -0.0036077192053198814, -0.0008442692924290895, 0.0019191806204617023, 0.004682630300521851, 0.007446080446243286, 0.010209530591964722, 0.012972980737686157, 0.015736430883407593, 0.01849988102912903, 0.021263329312205315, 0.02402677945792675, 0.026790229603648186, 0.02955367974936962, 0.03231712803244591, 0.03508057817816734, 0.03784402832388878, 0.040607478469610214, 0.04337092861533165, 0.046134378761053085, 0.04889782890677452, 0.051661279052495956, 0.05442472919821739, 0.05718817934393883, 0.05995162948966026, 0.0627150759100914, 0.06547852605581284, 0.06824197620153427, 0.0710054263472557, 0.07376887649297714, 0.07653232663869858, 0.07929577678442001, 0.08205922693014145, 0.08482267707586288, 0.08758612722158432, 0.09034957736730576, 0.09311302751302719, 0.09587647765874863]}, "gradients/layers.4.bias": {"_type": "histogram", "values": [1.0, 0.0, 0.0, 0.0, 0.0, 1.0, 0.0, 2.0, 1.0, 1.0, 0.0, 1.0, 1.0, 1.0, 2.0, 2.0, 1.0, 4.0, 4.0, 4.0, 3.0, 0.0, 1.0, 3.0, 2.0, 4.0, 0.0, 4.0, 4.0, 3.0, 1.0, 5.0, 4.0, 2.0, 4.0, 6.0, 2.0, 6.0, 5.0, 4.0, 1.0, 2.0, 5.0, 0.0, 2.0, 4.0, 4.0, 0.0, 1.0, 2.0, 3.0, 1.0, 5.0, 0.0, 1.0, 1.0, 2.0, 0.0, 1.0, 1.0, 1.0, 0.0, 1.0, 1.0], "bins": [-8.285773277282715, -8.038077354431152, -7.790380954742432, -7.542685031890869, -7.294988632202148, -7.047292709350586, -6.799596786499023, -6.551900386810303, -6.30420446395874, -6.056508541107178, -5.808812141418457, -5.5611162185668945, -5.313420295715332, -5.065723896026611, -4.818027973175049, -4.570331573486328, -4.322635650634766, -4.074939727783203, -3.8272433280944824, -3.57954740524292, -3.3318512439727783, -3.0841550827026367, -2.836459159851074, -2.5887629985809326, -2.341066837310791, -2.0933706760406494, -1.8456746339797974, -1.5979785919189453, -1.3502824306488037, -1.102586269378662, -0.8548902273178101, -0.6071941256523132, -0.3594980239868164, -0.11180192232131958, 0.13589417934417725, 0.3835902810096741, 0.6312863826751709, 0.8789824843406677, 1.1266785860061646, 1.3743746280670166, 1.6220707893371582, 1.8697669506072998, 2.1174631118774414, 2.365159034729004, 2.6128551959991455, 2.860551357269287, 3.1082472801208496, 3.355943441390991, 3.603639602661133, 3.8513357639312744, 4.099031925201416, 4.3467278480529785, 4.594424247741699, 4.842120170593262, 5.089816093444824, 5.337512493133545, 5.585208415985107, 5.83290433883667, 6.080600738525391, 6.328296661376953, 6.575992584228516, 6.823688983917236, 7.071384906768799, 7.3190813064575195, 7.566777229309082]}, "gradients/layers.4.weight": {"_type": "histogram", "values": [2.0, 1.0, 2.0, 3.0, 3.0, 1.0, 5.0, 5.0, 2.0, 8.0, 16.0, 14.0, 24.0, 28.0, 26.0, 47.0, 64.0, 104.0, 126.0, 173.0, 233.0, 338.0, 437.0, 590.0, 881.0, 1186.0, 1578.0, 1791.0, 1840.0, 1642.0, 1384.0, 1050.0, 784.0, 553.0, 380.0, 291.0, 212.0, 138.0, 110.0, 86.0, 52.0, 44.0, 36.0, 24.0, 20.0, 15.0, 12.0, 10.0, 4.0, 1.0, 0.0, 1.0, 2.0, 1.0, 0.0, 2.0, 1.0, 0.0, 0.0, 0.0, 0.0, 0.0, 0.0, 1.0], "bins": [-10.614232063293457, -10.239167213439941, -9.864103317260742, -9.489038467407227, -9.113973617553711, -8.738909721374512, -8.363844871520996, -7.9887800216674805, -7.613715648651123, -7.238651275634766, -6.86358642578125, -6.488522052764893, -6.113457679748535, -5.7383928298950195, -5.363328456878662, -4.9882636070251465, -4.613199234008789, -4.238134860992432, -3.863070011138916, -3.4880056381225586, -3.112941026687622, -2.7378764152526855, -2.362812042236328, -1.9877474308013916, -1.612682819366455, -1.2376182079315186, -0.8625537157058716, -0.48748916387557983, -0.11242461204528809, 0.26263993978500366, 0.6377044916152954, 1.0127689838409424, 1.3878326416015625, 1.762897253036499, 2.1379618644714355, 2.513026237487793, 2.8880908489227295, 3.263155460357666, 3.6382198333740234, 4.013284683227539, 4.3883490562438965, 4.763413429260254, 5.1384782791137695, 5.513542652130127, 5.888607025146484, 6.263671875, 6.638736248016357, 7.013801097869873, 7.3888654708862305, 7.763929843902588, 8.138994216918945, 8.514059066772461, 8.889123916625977, 9.264187812805176, 9.639252662658691, 10.014317512512207, 10.389381408691406, 10.764446258544922, 11.139511108398438, 11.514575958251953, 11.889639854431152, 12.264704704284668, 12.639769554138184, 13.014833450317383, 13.389898300170898]}, "gradients/layers.3.bias": {"_type": "histogram", "values": [1.0, 0.0, 0.0, 0.0, 1.0, 0.0, 0.0, 0.0, 0.0, 1.0, 0.0, 1.0, 1.0, 0.0, 2.0, 3.0, 1.0, 0.0, 1.0, 1.0, 2.0, 3.0, 1.0, 2.0, 1.0, 6.0, 5.0, 3.0, 2.0, 4.0, 2.0, 4.0, 1.0, 3.0, 5.0, 2.0, 4.0, 5.0, 4.0, 3.0, 2.0, 3.0, 6.0, 4.0, 1.0, 3.0, 8.0, 6.0, 0.0, 2.0, 3.0, 4.0, 1.0, 4.0, 2.0, 0.0, 0.0, 1.0, 0.0, 0.0, 0.0, 1.0, 0.0, 2.0], "bins": [-3.8391153812408447, -3.7378222942352295, -3.6365292072296143, -3.535236358642578, -3.433943271636963, -3.3326501846313477, -3.2313570976257324, -3.130064010620117, -3.028770923614502, -2.927478075027466, -2.8261849880218506, -2.7248919010162354, -2.62359881401062, -2.522305727005005, -2.4210128784179688, -2.3197197914123535, -2.2184267044067383, -2.117133617401123, -2.015840530395508, -1.9145475625991821, -1.8132545948028564, -1.7119615077972412, -1.610668420791626, -1.5093754529953003, -1.408082365989685, -1.3067892789840698, -1.2054963111877441, -1.104203224182129, -1.0029101371765137, -0.901617169380188, -0.8003240823745728, -0.6990310549736023, -0.5977380275726318, -0.4964450001716614, -0.39515194296836853, -0.2938588857650757, -0.19256585836410522, -0.09127281606197357, 0.010020226240158081, 0.11131326854228973, 0.2126063108444214, 0.31389933824539185, 0.4151923954486847, 0.5164854526519775, 0.617778480052948, 0.7190715074539185, 0.8203645944595337, 0.9216576218605042, 1.0229506492614746, 1.1242437362670898, 1.2255367040634155, 1.3268297910690308, 1.4281227588653564, 1.5294158458709717, 1.630708932876587, 1.7320019006729126, 1.8332949876785278, 1.934588074684143, 2.0358810424804688, 2.137174129486084, 2.238467216491699, 2.3397603034973145, 2.4410531520843506, 2.542346239089966, 2.643639326095581]}, "gradients/layers.3.weight": {"_type": "histogram", "values": [1.0, 1.0, 1.0, 0.0, 3.0, 3.0, 4.0, 4.0, 8.0, 8.0, 13.0, 13.0, 17.0, 26.0, 29.0, 39.0, 53.0, 66.0, 95.0, 113.0, 144.0, 210.0, 292.0, 409.0, 583.0, 781.0, 1147.0, 1506.0, 2007.0, 2548.0, 2972.0, 3215.0, 3255.0, 2915.0, 2463.0, 2102.0, 1595.0, 1134.0, 855.0, 634.0, 421.0, 300.0, 200.0, 155.0, 105.0, 80.0, 52.0, 44.0, 43.0, 23.0, 23.0, 22.0, 11.0, 7.0, 3.0, 7.0, 0.0, 2.0, 2.0, 0.0, 0.0, 2.0, 1.0, 1.0], "bins": [-3.643305778503418, -3.5293898582458496, -3.415473699569702, -3.301557779312134, -3.1876416206359863, -3.073725700378418, -2.9598095417022705, -2.845893621444702, -2.7319774627685547, -2.6180615425109863, -2.504145622253418, -2.3902294635772705, -2.276313543319702, -2.1623973846435547, -2.0484814643859863, -1.9345654249191284, -1.8206493854522705, -1.7067333459854126, -1.5928173065185547, -1.4789012670516968, -1.3649852275848389, -1.2510693073272705, -1.1371532678604126, -1.0232372283935547, -0.9093211889266968, -0.7954051494598389, -0.681489109992981, -0.5675731301307678, -0.4536570906639099, -0.339741051197052, -0.22582504153251648, -0.11190901696681976, 0.0020072460174560547, 0.11592327058315277, 0.2298392951488495, 0.343755304813385, 0.4576713442802429, 0.5715873837471008, 0.685503363609314, 0.7994194030761719, 0.9133354425430298, 1.0272514820098877, 1.1411675214767456, 1.2550835609436035, 1.3689994812011719, 1.4829155206680298, 1.5968315601348877, 1.7107475996017456, 1.8246636390686035, 1.9385796785354614, 2.0524957180023193, 2.1664116382598877, 2.280327796936035, 2.3942437171936035, 2.508159875869751, 2.6220757961273193, 2.735991954803467, 2.849907875061035, 2.9638237953186035, 3.077739953994751, 3.1916558742523193, 3.305572032928467, 3.419487953186035, 3.5334041118621826, 3.647320032119751]}, "gradients/layers.2.bias": {"_type": "histogram", "values": [1.0, 0.0, 0.0, 0.0, 0.0, 0.0, 0.0, 1.0, 0.0, 1.0, 0.0, 1.0, 2.0, 0.0, 1.0, 2.0, 1.0, 5.0, 4.0, 3.0, 5.0, 3.0, 1.0, 4.0, 10.0, 2.0, 4.0, 13.0, 7.0, 11.0, 11.0, 13.0, 12.0, 9.0, 10.0, 10.0, 7.0, 8.0, 10.0, 12.0, 6.0, 14.0, 5.0, 3.0, 6.0, 3.0, 6.0, 5.0, 3.0, 3.0, 2.0, 3.0, 3.0, 1.0, 1.0, 1.0, 1.0, 3.0, 0.0, 1.0, 1.0, 0.0, 0.0, 1.0], "bins": [-1.7237179279327393, -1.6749171018600464, -1.6261162757873535, -1.577315330505371, -1.5285145044326782, -1.4797136783599854, -1.4309128522872925, -1.3821120262145996, -1.3333110809326172, -1.2845102548599243, -1.2357094287872314, -1.1869086027145386, -1.1381077766418457, -1.0893069505691528, -1.0405060052871704, -0.9917051792144775, -0.9429043531417847, -0.8941035270690918, -0.8453026413917542, -0.7965018153190613, -0.7477009296417236, -0.6989001035690308, -0.6500992774963379, -0.6012983918190002, -0.5524975657463074, -0.5036967396736145, -0.45489585399627686, -0.406095027923584, -0.3572941720485687, -0.30849331617355347, -0.2596924901008606, -0.21089163422584534, -0.16209077835083008, -0.11328992992639542, -0.06448908150196075, -0.015688233077526093, 0.03311261534690857, 0.08191346377134323, 0.1307143121957779, 0.17951515316963196, 0.22831600904464722, 0.2771168649196625, 0.32591772079467773, 0.3747185468673706, 0.42351940274238586, 0.4723202586174011, 0.521121084690094, 0.5699219703674316, 0.6187227964401245, 0.6675236225128174, 0.716324508190155, 0.7651253342628479, 0.8139262199401855, 0.8627270460128784, 0.9115278720855713, 0.9603287577629089, 1.009129524230957, 1.0579304695129395, 1.1067312955856323, 1.1555321216583252, 1.204332947731018, 1.253133773803711, 1.3019347190856934, 1.3507355451583862, 1.399536371231079]}, "gradients/layers.2.weight": {"_type": "histogram", "values": [1.0, 0.0, 1.0, 1.0, 0.0, 0.0, 0.0, 1.0, 1.0, 3.0, 3.0, 4.0, 6.0, 11.0, 8.0, 23.0, 26.0, 25.0, 44.0, 53.0, 95.0, 135.0, 194.0, 272.0, 479.0, 704.0, 1181.0, 1976.0, 3316.0, 5203.0, 8247.0, 11875.0, 15428.0, 17703.0, 17487.0, 14943.0, 11252.0, 7637.0, 4840.0, 3005.0, 1785.0, 1090.0, 695.0, 449.0, 281.0, 179.0, 124.0, 73.0, 72.0, 34.0, 33.0, 25.0, 17.0, 8.0, 7.0, 6.0, 2.0, 2.0, 3.0, 0.0, 0.0, 1.0, 2.0, 1.0], "bins": [-1.5687217712402344, -1.5224801301956177, -1.476238489151001, -1.4299967288970947, -1.383755087852478, -1.3375134468078613, -1.2912718057632446, -1.245030164718628, -1.1987884044647217, -1.152546763420105, -1.1063051223754883, -1.0600634813308716, -1.0138218402862549, -0.9675801396369934, -0.9213384985923767, -0.8750967979431152, -0.8288551568984985, -0.7826135158538818, -0.7363718152046204, -0.6901301741600037, -0.6438884735107422, -0.5976468324661255, -0.5514051914215088, -0.5051634907722473, -0.4589218497276306, -0.41268017888069153, -0.36643850803375244, -0.32019686698913574, -0.27395519614219666, -0.22771352529525757, -0.18147186934947968, -0.13523021340370178, -0.08898866176605225, -0.042746998369693756, 0.003494665026664734, 0.049736328423023224, 0.09597799181938171, 0.1422196626663208, 0.1884613186120987, 0.2347029745578766, 0.2809446454048157, 0.32718631625175476, 0.37342798709869385, 0.41966962814331055, 0.46591129899024963, 0.5121529698371887, 0.5583946108818054, 0.6046363115310669, 0.6508779525756836, 0.6971195936203003, 0.7433612942695618, 0.7896029353141785, 0.8358446359634399, 0.8820862770080566, 0.9283279180526733, 0.9745696187019348, 1.0208113193511963, 1.067052960395813, 1.1132946014404297, 1.1595362424850464, 1.205777883529663, 1.2520195245742798, 1.298261284828186, 1.3445029258728027, 1.3907445669174194]}, "gradients/layers.1.bias": {"_type": "histogram", "values": [1.0, 0.0, 0.0, 0.0, 0.0, 2.0, 3.0, 2.0, 1.0, 2.0, 5.0, 1.0, 2.0, 2.0, 7.0, 2.0, 5.0, 7.0, 11.0, 19.0, 5.0, 11.0, 18.0, 13.0, 15.0, 9.0, 13.0, 13.0, 19.0, 24.0, 23.0, 20.0, 19.0, 20.0, 24.0, 19.0, 15.0, 14.0, 13.0, 13.0, 17.0, 11.0, 14.0, 13.0, 6.0, 10.0, 9.0, 7.0, 7.0, 1.0, 7.0, 6.0, 4.0, 1.0, 1.0, 0.0, 3.0, 0.0, 0.0, 0.0, 0.0, 1.0, 1.0, 1.0], "bins": [-0.761873185634613, -0.7384585738182068, -0.7150439620018005, -0.6916293501853943, -0.668214738368988, -0.6448001265525818, -0.6213855147361755, -0.5979709029197693, -0.5745562314987183, -0.551141619682312, -0.5277270078659058, -0.5043123960494995, -0.48089778423309326, -0.457483172416687, -0.43406856060028076, -0.4106539487838745, -0.38723933696746826, -0.363824725151062, -0.34041011333465576, -0.3169955015182495, -0.29358088970184326, -0.2701662480831146, -0.24675163626670837, -0.22333702445030212, -0.19992241263389587, -0.17650780081748962, -0.15309318900108337, -0.12967856228351593, -0.10626395046710968, -0.08284933865070343, -0.05943471938371658, -0.036020103842020035, -0.012605547904968262, 0.010809067636728287, 0.034223683178424835, 0.057638298720121384, 0.08105291426181793, 0.10446752607822418, 0.12788215279579163, 0.15129676461219788, 0.17471137642860413, 0.19812598824501038, 0.22154060006141663, 0.24495522677898407, 0.2683698534965515, 0.29178446531295776, 0.315199077129364, 0.33861368894577026, 0.3620283007621765, 0.38544291257858276, 0.408857524394989, 0.43227213621139526, 0.4556867480278015, 0.47910138964653015, 0.502515971660614, 0.5259305834770203, 0.5493452548980713, 0.5727598667144775, 0.5961744785308838, 0.61958909034729, 0.6430037021636963, 0.6664183139801025, 0.6898329257965088, 0.713247537612915, 0.7366621494293213]}, "gradients/layers.1.weight": {"_type": "histogram", "values": [1.0, 2.0, 0.0, 4.0, 1.0, 5.0, 1.0, 15.0, 18.0, 17.0, 29.0, 24.0, 39.0, 39.0, 73.0, 88.0, 151.0, 185.0, 266.0, 433.0, 510.0, 810.0, 1134.0, 1724.0, 2632.0, 4212.0, 6746.0, 11320.0, 19257.0, 31712.0, 48850.0, 66727.0, 78164.0, 75716.0, 60823.0, 42862.0, 27289.0, 16359.0, 9601.0, 5670.0, 3568.0, 2296.0, 1494.0, 1011.0, 730.0, 470.0, 339.0, 236.0, 179.0, 110.0, 89.0, 60.0, 56.0, 46.0, 26.0, 25.0, 15.0, 5.0, 8.0, 5.0, 2.0, 6.0, 2.0, 1.0], "bins": [-0.6391565203666687, -0.619693398475647, -0.6002302765846252, -0.5807671546936035, -0.5613040328025818, -0.5418409109115601, -0.5223777890205383, -0.5029146671295166, -0.48345157504081726, -0.46398845314979553, -0.4445253312587738, -0.4250622093677521, -0.40559911727905273, -0.386135995388031, -0.3666728734970093, -0.34720975160598755, -0.3277466297149658, -0.3082835078239441, -0.28882038593292236, -0.26935726404190063, -0.2498941570520401, -0.23043103516101837, -0.21096792817115784, -0.1915048062801361, -0.17204168438911438, -0.15257856249809265, -0.13311544060707092, -0.11365233361721039, -0.09418921172618866, -0.07472608983516693, -0.0552629753947258, -0.03579985722899437, -0.01633673906326294, 0.0031263791024684906, 0.02258949726819992, 0.04205261543393135, 0.06151573359966278, 0.08097885549068451, 0.10044196993112564, 0.11990508437156677, 0.1393682062625885, 0.15883132815361023, 0.17829445004463196, 0.1977575570344925, 0.21722067892551422, 0.23668380081653595, 0.2561469078063965, 0.2756100296974182, 0.29507315158843994, 0.31453627347946167, 0.3339993953704834, 0.3534625172615051, 0.37292563915252686, 0.3923887312412262, 0.4118518531322479, 0.43131497502326965, 0.4507780969142914, 0.4702412188053131, 0.48970434069633484, 0.5091674327850342, 0.5286305546760559, 0.5480936765670776, 0.5675567984580994, 0.5870199203491211, 0.6064830422401428]}, "gradients/layers.0.bias": {"_type": "histogram", "values": [2.0, 2.0, 1.0, 1.0, 2.0, 0.0, 4.0, 4.0, 10.0, 5.0, 8.0, 11.0, 23.0, 26.0, 22.0, 23.0, 23.0, 41.0, 52.0, 34.0, 49.0, 53.0, 51.0, 61.0, 56.0, 52.0, 52.0, 59.0, 41.0, 47.0, 43.0, 32.0, 23.0, 30.0, 8.0, 15.0, 14.0, 11.0, 9.0, 3.0, 6.0, 0.0, 0.0, 4.0, 2.0, 2.0, 1.0, 1.0, 0.0, 1.0, 0.0, 1.0, 1.0, 0.0, 0.0, 0.0, 0.0, 0.0, 0.0, 0.0, 1.0, 0.0, 0.0, 1.0], "bins": [-0.6347581148147583, -0.6085972785949707, -0.5824363827705383, -0.5562755465507507, -0.5301147103309631, -0.5039538145065308, -0.47779297828674316, -0.4516321122646332, -0.4254712462425232, -0.3993104100227356, -0.3731495440006256, -0.3469886779785156, -0.320827841758728, -0.29466697573661804, -0.26850610971450806, -0.24234525859355927, -0.21618440747261047, -0.19002355635166168, -0.1638626903295517, -0.1377018392086029, -0.11154098063707352, -0.08538012206554413, -0.05921926721930504, -0.03305841237306595, -0.00689755380153656, 0.01926330290734768, 0.04542415961623192, 0.07158501446247101, 0.0977458730340004, 0.12390673160552979, 0.15006758272647858, 0.17622844874858856, 0.20238929986953735, 0.22855015099048615, 0.25471100211143494, 0.2808718681335449, 0.3070327341556549, 0.3331935703754425, 0.3593544363975525, 0.3855153024196625, 0.41167616844177246, 0.43783700466156006, 0.46399787068367004, 0.49015873670578003, 0.5163195729255676, 0.5424804091453552, 0.5686413049697876, 0.5948021411895752, 0.6209629774093628, 0.6471238732337952, 0.6732847094535828, 0.6994456052780151, 0.7256064414978027, 0.7517672777175903, 0.7779281735420227, 0.8040890097618103, 0.8302498459815979, 0.8564107418060303, 0.8825715780258179, 0.9087324142456055, 0.9348933100700378, 0.9610541462898254, 0.987214982509613, 1.0133758783340454, 1.039536714553833]}, "gradients/layers.0.weight": {"_type": "histogram", "values": [1.0, 1.0, 0.0, 2.0, 2.0, 3.0, 2.0, 14.0, 24.0, 48.0, 69.0, 138.0, 172.0, 320.0, 462.0, 679.0, 973.0, 1423.0, 2076.0, 3046.0, 4081.0, 5431.0, 6908.0, 8563.0, 10200.0, 11019.0, 11579.0, 11627.0, 11015.0, 9748.0, 8222.0, 6480.0, 4970.0, 3493.0, 2493.0, 1697.0, 1286.0, 778.0, 533.0, 359.0, 293.0, 208.0, 150.0, 91.0, 79.0, 56.0, 56.0, 41.0, 27.0, 23.0, 29.0, 20.0, 11.0, 15.0, 8.0, 10.0, 6.0, 2.0, 2.0, 3.0, 2.0, 1.0, 0.0, 2.0], "bins": [-0.6264130473136902, -0.6031830906867981, -0.5799531936645508, -0.5567232370376587, -0.5334932804107666, -0.5102633833885193, -0.4870334267616272, -0.4638034999370575, -0.4405735731124878, -0.4173436164855957, -0.394113689661026, -0.3708837628364563, -0.3476538062095642, -0.3244238793849945, -0.3011939525604248, -0.2779639959335327, -0.254734069108963, -0.23150412738323212, -0.20827420055866241, -0.18504425883293152, -0.16181433200836182, -0.13858439028263092, -0.11535444855690002, -0.09212451428174973, -0.06889458000659943, -0.04566464573144913, -0.02243470773100853, 0.0007952284067869186, 0.024025164544582367, 0.047255098819732666, 0.07048504054546356, 0.09371497482061386, 0.11694490909576416, 0.14017485082149506, 0.16340477764606476, 0.18663471937179565, 0.20986464619636536, 0.23309458792209625, 0.25632452964782715, 0.27955445647239685, 0.30278438329696655, 0.32601433992385864, 0.34924426674842834, 0.37247419357299805, 0.39570415019989014, 0.41893407702445984, 0.44216400384902954, 0.46539396047592163, 0.48862388730049133, 0.511853814125061, 0.5350837707519531, 0.5583136677742004, 0.5815436244010925, 0.6047735810279846, 0.6280034780502319, 0.651233434677124, 0.6744633913040161, 0.6976932883262634, 0.7209232449531555, 0.7441532015800476, 0.7673830986022949, 0.790613055229187, 0.8138430118560791, 0.8370729088783264, 0.8603028655052185]}, "timers/ezpz.setup_torch": 5.398999894037843, "timers/imports": 3.1519681215286255e-05, "timers/init_to_first_step": 8.611472791992128, "_wandb": {"runtime": 15}}